-3.380359822714103322e-03,3.856708377611321042e-02,-1.500204266974310974e-01,4.378500911173655030e-02,-1.299872890292776660e-02,3.036604059730922504e-03,8.465371805217952392e-03,1.864934841349182026e-01,-6.944326332619364141e-04,-4.157071015144977316e-03,-1.086472953201741698e-01,1.959811162653986583e-01,5.591865958570688688e-01,2.187738818754271231e-01,-1.117524840781432410e-01,1.451986304277885081e-02,1.752220579005449135e-03,2.095312397848619612e-01,-1.517984781437263508e-02,1.247717841646770430e-02,-1.621305164823245992e-02,4.304971888154650317e-02,-1.517511876382534597e-01,4.618290360106680481e-02,-8.252264030101331624e-03
-9.333766164660280487e-03,1.248345664375773503e-02,-1.731203043168863531e-01,3.128906201091344319e-02,-2.878416310265183992e-02,-4.888662739693316883e-02,2.177329259385031301e-01,4.126294950226529895e-02,2.006127810255746990e-01,-4.448418225191263370e-02,-8.374202676111219823e-02,2.529891016852302277e-02,6.393503429083007283e-01,6.106722854954092089e-02,-1.043301440355434984e-01,-7.873004130900673747e-02,3.038131560080586380e-01,-1.978553449840631667e-02,2.781291950879213881e-01,-6.273721777246918374e-02,-3.063174201566197519e-02,2.654163694710852048e-02,-1.785314880958831507e-01,3.574843927006321476e-02,-1.496504810884623921e-02
8.748412358516213794e-03,-2.682026024634494646e-02,-5.757548579254784249e-02,-3.090789766580163619e-02,1.814124519895193854e-02,8.488782410667747302e-02,-1.603337201857164829e-01,3.796370910782057018e-01,-1.741033691894904589e-01,8.582876385612617232e-02,-3.945839757157280914e-02,5.045074673026247319e-02,7.188604363725767943e-01,6.882135369900241328e-02,-3.030114451889540095e-02,6.033595364490191432e-02,-1.116630621512443161e-01,3.295635109518716965e-01,-1.328649985757526519e-01,6.415337652325321660e-02,1.361810400173752225e-02,-3.599714948231579059e-02,-6.564296545548548023e-02,-2.111310857487449025e-02,3.875702698452249129e-03
-1.027642519746655748e-02,8.273373615258342029e-02,-6.583941392144558591e-02,8.641208187711371669e-02,-9.360701971864282545e-03,2.380630242111936301e-03,-1.167460253999515474e-01,4.068836307878207631e-02,-1.083111900433669228e-01,-1.223758217212797886e-02,-1.091931813060788570e-01,3.289934284477991633e-01,7.362172225696265171e-01,3.267511701454763884e-01,-9.151354185490524762e-02,-1.111953450196003813e-02,-1.001125172715433970e-01,2.030779658688515454e-02,-8.420027185902688449e-02,-1.605024547212827862e-02,-1.266837599513950113e-02,9.917893940344484072e-02,-6.384315094032404214e-02,8.139326945259409141e-02,2.710169616290728639e-03
1.482222723504476522e-02,1.052856513519724591e-01,-1.045045399904973860e-01,7.708925425317003643e-02,-1.829593518648635342e-04,-6.189540458255064770e-02,-1.036974464933012041e-01,8.516806740324760205e-02,-7.591931685014323417e-02,-2.958455294227724242e-02,-3.955774898214974022e-02,3.447565339511885485e-01,6.742098000841966199e-01,3.018027038741688539e-01,-7.676590151269613305e-02,-6.369284358545776459e-02,-1.229410358690633254e-01,1.004832635886913628e-01,-1.024906905008444169e-01,-2.315077295503463473e-02,1.213103641750158147e-02,1.114820172293682077e-01,-1.074802947258314267e-01,7.828576047804007565e-02,-1.322436140513093966e-03
1.664098018879201293e-03,-1.610630249124378466e-02,-6.021161390853224660e-02,-2.938577958162833653e-02,-6.362696996473835021e-04,6.565763119101444834e-02,-1.108312207641743846e-01,2.732032517967601382e-01,-9.419619404015230901e-02,6.430363025706092861e-02,-5.948335145457506190e-02,7.080590229618741183e-02,7.534786726424005376e-01,4.933015900646739449e-02,-5.937307642509222216e-02,1.237928030625756182e-01,-1.864196021451663410e-01,3.600361658752114224e-01,-1.745313343793460370e-01,1.188285753651441706e-01,2.247125678212615399e-03,-2.508767176246027436e-02,-4.651040457658019850e-02,-2.815019187805537990e-02,2.180277622909679996e-03
-4.035648106708498994e-02,2.475939091091079389e-02,-1.288197958946033506e-01,2.826331903683504398e-02,-4.095386385566178455e-02,-7.496519565335704564e-03,2.737816427118725526e-01,-7.548939505048782306e-02,2.434636881617264215e-01,-2.069011177877971147e-02,-1.603597856981805736e-01,3.853777358481901699e-02,7.301550517219377312e-01,5.781540463908867167e-02,-1.343498383875168511e-01,1.452044889715097160e-02,2.446579277530488150e-01,-6.391223691192846057e-02,2.237703021975389062e-01,-1.483489876858331419e-02,-6.771680834164896245e-02,2.718693205424258658e-02,-1.238934916947343617e-01,2.711835777771833163e-03,-3.238170745662317940e-02
-2.953768761731131315e-02,6.170297035465795166e-02,-1.155435851631826660e-01,2.931455657925578773e-02,-1.732778798933639133e-02,6.206481835264955615e-02,-3.005965037568675974e-02,1.435179573184306168e-01,-7.048315912398246674e-03,4.044679458254837878e-02,-1.618159813967229299e-01,2.399878544446765738e-01,6.274267138383452513e-01,1.945913702879314144e-01,-1.345739484798479935e-01,5.092495413302157437e-02,-4.295243379047040955e-03,1.059715329214081792e-01,2.188445568703681343e-02,1.653561576841650754e-02,-4.484984062921837378e-02,6.261564364642721592e-02,-1.171309630383225164e-01,1.886124887732469613e-02,-1.120791133266459474e-02
