-1.481507886379069758e-02,2.132377495108457935e-02,-3.345376856453156911e-02,2.786727946489434352e-02,-2.531732185958111142e-02,1.085753831618756562e-02,-1.865286502069522095e-02,6.869396520172856013e-03,-1.159406921032455143e-02,1.749288718154216535e-02,7.822092398087805015e-03,8.800202561443490681e-03,7.396973582819203752e-03,2.660125178512640770e-02,1.258673484902002315e-03,1.608565863355258113e-02,6.155157296329340916e-03,1.251225106545501321e-02,-2.680034472989500927e-02,1.655253382234139412e-02,-4.332089747237995864e-02,2.833750710372851325e-02,-5.226899485826799752e-02,1.783407706600362297e-02,-3.593627252572481612e-02,9.010445564466715296e-03,-2.411347677803076656e-02,2.174641097146124552e-02,1.182170614183943036e-03,2.807527708367214131e-02,-1.522630506800279337e-02,8.412171333891027558e-02,-1.899416514142861917e-02,3.118450830770742518e-02,9.052407220802791143e-04,2.027292096741080407e-02,-3.471709759714436405e-02,3.574102330902018815e-02,-7.582758863024835483e-02,8.326636193835079691e-02,8.099114214387632682e-01,6.273189177154527008e-02,-6.237978771117023979e-02,2.107256628116128960e-02,-3.117759891416328061e-02,1.952955364135697258e-02,3.752058782729418562e-03,2.378415860884208061e-02,-1.238091870218578291e-02,5.349658390887798015e-02,-2.005306573879550580e-02,3.290263521701054794e-02,2.572997244576949449e-03,2.073951660243823769e-02,-2.905407872057708119e-02,1.971071944624865416e-02,-4.889089686481306457e-02,3.058131460372405866e-02,-4.769601807577743963e-02,1.719363403528354622e-02,-3.412085777790479363e-02,5.973528984177188181e-03,-2.352391815093532110e-02,1.195936025875935643e-02,8.065520757165147922e-03,1.491886157824089815e-02,5.957642472966248604e-03,2.144001883088731200e-02,2.007266727101438691e-03,1.273792685647150494e-02,9.836769328572633059e-03,1.348069282813937203e-02,-1.597767554696843256e-02,1.920059565556067258e-02,-2.505295840250036307e-02,2.155472765924955000e-02,-2.101472200291465420e-02,1.099786970431529745e-02,-1.794627953926697383e-02,7.606131801702087879e-03,-1.265621956024958611e-02
-2.050165061839232666e-02,2.605165649630480917e-02,-3.689772376663025960e-02,2.969195392665051336e-02,-3.667719298156783131e-02,1.744481929008822110e-03,-3.052828646795484324e-02,1.231324766201127331e-02,-2.438293109291712543e-02,2.072171810777750228e-02,1.399857990781989275e-02,1.158310751571883790e-02,3.823724968547313058e-02,9.846260756705428260e-03,3.693092608486174544e-02,2.469618809677955398e-02,1.211905239477845814e-02,2.331299455368478907e-02,-4.036032739173245343e-02,1.964515024869767368e-02,-4.557428194772774471e-02,-1.762322798877541050e-02,-2.313610576278476993e-02,-5.195242126694470108e-02,-3.205263766421000832e-02,-3.356700839575814041e-03,-3.187672828581417095e-02,2.668929136605752150e-02,4.005398896422089627e-02,-4.507313528591910118e-02,1.620226081566795984e-01,-5.109523949244271918e-02,1.565801858083575859e-01,-1.646623708482788939e-02,3.502842888278299982e-02,1.952538658573253066e-02,-5.268005119215403431e-02,1.422095430271872948e-02,-3.774366187207514600e-02,-6.454242157823636417e-02,8.724960423868524106e-01,-8.578669856364105895e-02,-2.452715024518277442e-02,-1.274434357358136642e-02,-4.225756602994879679e-02,3.193945671321916924e-02,3.952970344611893977e-02,-2.988465745762130740e-02,1.577797548750793366e-01,-6.263589758013851649e-02,1.558274220906450402e-01,-2.736903351897040926e-02,4.456681211994141523e-02,2.519221326425571256e-02,-4.837701938583355982e-02,2.553765331369818939e-02,-5.927126984172947921e-02,-1.901371818323484286e-02,-2.666317851772436603e-02,-4.654406714507317716e-02,-3.428282134764209371e-02,6.229671661807639933e-03,-4.043737733730197459e-02,3.230700402389654474e-02,1.641191183722499197e-02,1.078091309043783738e-02,2.942501543160269337e-02,1.504645446551421996e-02,2.488218150151777497e-02,2.240955541028573361e-02,1.739275824566990925e-02,1.758428145016754929e-02,-2.460531163550318950e-02,2.454945278736961681e-02,-2.912855019822021066e-02,1.854130771333592151e-02,-2.198910926371185764e-02,-2.394485542025696911e-03,-1.772094425978492510e-02,2.191892705163750281e-03,-1.061609886201181352e-02
-5.868246598475627268e-03,-1.058718250405834074e-02,3.767989792398930560e-03,-9.827300005887860262e-03,-1.141810110380604010e-02,1.231090862447853373e-04,-4.571980213423670891e-03,-7.824423830225558929e-03,4.392005778681984385e-08,2.497717473100640947e-02,-1.375213636520168647e-02,3.875082180992199532e-02,-2.176514266448790341e-02,3.587278212928274312e-02,-1.134618907370984683e-02,2.987105239548504612e-02,-4.085548239685208791e-03,2.126302676618068918e-02,-1.851716398306537531e-02,-1.815695624753437681e-02,-1.535379640099241924e-02,-1.354858669859384038e-02,-3.485616224380564537e-02,-8.470376277364849785e-03,-1.834993393168352430e-02,-2.009880610536654913e-02,-1.737670074619301550e-02,4.486749525588765858e-02,-1.339642116176442688e-02,6.523951313691116194e-02,-3.434021123352803267e-02,8.060000725910265729e-02,-2.659693085038607185e-02,6.031738412369853919e-02,-3.355562557552390843e-03,4.362765974295008259e-02,-4.525593640826189312e-02,7.157821460397402469e-03,-5.592387472543376703e-02,3.492752974510648922e-02,9.483836503649750727e-01,4.844759640499383957e-02,-6.375855813631874092e-02,5.122876726076117798e-03,-4.255235771240350323e-02,4.217519492060482073e-02,-3.667137531654261762e-02,7.307835354792477367e-02,-6.800625556002438954e-02,1.180014117885625491e-01,-5.267160360457526919e-02,6.070059199015241658e-02,-2.243651480139830651e-02,3.692594530529265395e-02,-2.384300218728623716e-02,-9.317699023701116190e-04,-2.066335708354753026e-02,4.633657689746693148e-03,-5.029174848339550141e-02,4.975085065901845363e-03,-2.418821550971034587e-02,-2.143689238710206821e-03,-2.399026685283128096e-02,2.945999408596936681e-02,-1.892498289798738575e-02,4.094438233854084952e-02,-2.441088797640329766e-02,4.409791858688932170e-02,-9.777375266146895796e-03,3.183161193442642783e-02,-1.113394380126637301e-02,2.393867619919708839e-02,-1.060848179152364471e-02,-1.478018508484311294e-03,-1.057810104389941136e-02,-6.904638285951622892e-03,-1.284234786390224710e-02,-3.789671544231199701e-03,-1.090373540881531961e-02,3.271700510395318673e-03,-9.512166111884092987e-03
5.962436493158005529e-03,2.617347481894918837e-03,5.659053862978699612e-03,1.106623589742276176e-02,-3.542350092456736377e-03,1.245880956473012849e-02,-4.600067236976274759e-03,5.200288504580548310e-03,4.263364341404173551e-03,-1.556620035169604607e-02,5.010003113482540057e-03,-1.421709776635667402e-02,-7.235259928167828147e-03,-9.300951752516141424e-03,-1.649248544446998976e-02,-1.704861269089427353e-02,-1.103533352700147158e-03,-1.190724757482596041e-02,1.283859613043975695e-02,6.335156146490390772e-03,-6.665160377838106123e-03,5.828476020306420230e-02,-2.908754352349747843e-02,5.442364382033083176e-02,6.507439817469296527e-03,4.970511022388369310e-03,8.086341238731576536e-03,-1.365266444320382619e-02,4.876020067514198232e-03,6.895405581036496978e-03,-9.083432884327378998e-02,6.569059273862543069e-02,-1.151775417889761566e-01,2.423360537501171794e-02,-1.021573856537385215e-02,-5.399521896440363788e-03,-7.470416826573987763e-03,4.672510673661101760e-02,-9.963996816316236793e-02,2.743290537252081607e-01,7.157941969349121969e-01,2.924079781578070580e-01,-1.050325681385368276e-01,4.690774057281622833e-02,-1.192744665875600761e-02,-1.293519073056373370e-02,-5.030558466786416022e-03,7.437042470717093387e-03,-1.115366382950307711e-01,8.135848119821996460e-02,-1.235629416338809988e-01,1.649339682898584569e-02,-1.589166446578807457e-02,-7.551375477038529266e-03,1.736983063269571109e-02,1.003132509240919207e-02,-7.520210295995963246e-03,6.926393593448300356e-02,-3.783300615148131596e-02,6.030725380286328791e-02,-6.708330653677407537e-03,1.578911961565432343e-02,1.052276431823555812e-02,-2.202399705732945370e-02,1.987420411119408467e-02,-2.068839746289644413e-02,-1.414172125810891564e-02,3.508335994556015681e-03,-2.685303219284084636e-02,-4.490174331701550330e-04,-5.648654360023139254e-03,-1.657716955665678935e-02,6.005461127872036009e-03,8.064778083625139676e-03,3.806079472795410867e-04,1.257719148939187397e-03,2.485597817271863880e-03,4.709821859424496299e-03,3.171082314328901863e-03,9.047009968303357588e-03,1.212513874843348938e-03
3.497394352085968910e-03,6.693143948174565261e-03,-2.545173021681747944e-02,9.939556467293411690e-02,-1.375685864827282390e-01,4.021633230016555260e-02,-5.380573676893252860e-03,2.197569663957912867e-03,-2.427335421962715720e-05,4.517510855273375314e-03,2.877101828924396101e-03,5.408848293112340777e-03,4.903239757018260786e-02,-4.105375393812543683e-02,-1.846630116479090408e-03,6.159115549761978725e-03,-1.163788167966381404e-02,2.343364230480749627e-03,-3.387253606355201951e-03,9.386715572863732482e-03,-5.129800532022468773e-02,9.794713852443207025e-02,-1.347368889770269862e-01,5.835099661897685808e-02,-1.920530924213758109e-02,1.777121935729457022e-02,-2.641870575263631157e-03,4.912458763253774174e-03,-1.016557837343898610e-03,1.690170407185958776e-02,1.923458741709827349e-02,-1.989028861537028847e-02,-2.686454900229517939e-02,1.842459851102010160e-02,-1.862120478631601461e-02,2.867523055797495390e-03,-1.128731023664313743e-02,2.578436905279667818e-02,-7.700704903458531481e-02,1.461915445178991468e-01,8.731490378653170570e-01,1.157362486158332870e-01,-5.523509192464450684e-02,3.648908579226264187e-02,-9.637647602426444721e-03,3.365044540174336879e-03,-2.346992329709633729e-03,1.648397150359958568e-02,2.487480247056348195e-02,5.538154005041052638e-03,-2.909712349244715501e-02,1.805214748517997708e-02,-2.244704998430058565e-02,6.490489039486999068e-05,1.612261469611850524e-03,1.070390893319214665e-02,-5.373125468456308590e-02,1.080294641939623518e-01,-1.286317077428463518e-01,5.057275809674431633e-02,-1.805593299256638695e-02,1.811952410705578234e-02,-2.073507246016792482e-04,5.342031587141481824e-03,-3.379129870931512486e-03,-3.522789034333746044e-03,4.703252027829688681e-02,-3.531356698703615876e-02,-1.011279804383001524e-03,8.876731497512342639e-03,-1.387761278181793255e-02,-2.963091243849682796e-04,5.511759560496942018e-03,9.271364888463277595e-03,-4.082620531070126069e-02,1.120555050035932781e-01,-1.106376025857172679e-01,1.981901439253098973e-02,-9.281202749848210115e-03,7.941910215324964398e-03,-6.682731496354739342e-03
1.416930040281016122e-02,-3.525928166402966107e-02,1.248614739117621247e-02,5.869765846308491741e-02,-1.221981699173416702e-01,-8.247591503094967025e-03,1.775144709873893029e-02,-3.730805504859938809e-02,4.053674045946592183e-03,1.512337129878620762e-02,2.543377899208838777e-02,2.719779810514755258e-02,6.539121427580117663e-02,3.547186901824424948e-03,2.650731036959105141e-02,1.831095675830585190e-02,1.649823433567730938e-02,1.257878700890799166e-02,3.700775031820919929e-03,-4.604615916777995976e-02,-3.574987773619248826e-02,5.307939592589262789e-02,-1.846604649046892088e-01,1.769118384559004858e-02,-2.903826373018945223e-02,-3.388854273069621253e-02,-1.897834627464503252e-04,2.396358673674080231e-02,2.967909536492386018e-03,8.885194119602826679e-02,-2.793293112356408023e-02,2.122188146425289523e-01,-7.168498922763670567e-02,8.252993399441298228e-02,4.672798440127221703e-03,1.246767809194727558e-02,-1.177830946178936786e-02,-4.436653903361284512e-02,-6.774161336615337758e-02,1.086608890809184352e-01,6.387134088450484581e-01,8.994204476268431725e-02,-7.060992112647709873e-02,-1.990105261770416800e-02,-2.079507002042752656e-02,2.428372351251891631e-02,1.249103126205979540e-02,9.125404592233933576e-02,-1.879807775983290824e-02,2.243737916076020134e-01,-8.727419506054430454e-02,8.868205840638219983e-02,-6.213143446053559504e-04,2.199093379651045205e-02,1.713064507392254854e-02,-6.406273846352053547e-02,-3.830190171834298163e-02,5.317186351756944540e-02,-1.889006025240450581e-01,1.937891099603733167e-02,-1.646974997208641364e-02,-3.465066671576085000e-02,-1.659844802111475059e-03,1.800366829967962184e-02,2.409945818848268848e-02,1.650992165851870516e-02,7.128171979793050672e-02,1.791792089642068458e-03,2.283865072771683671e-02,1.539302419834211177e-02,1.602326418498658048e-02,5.415881024136297989e-03,1.563118615245162948e-02,-2.793731569057220088e-02,-9.237812791756963571e-03,7.355309559551648224e-02,-1.051092705682616230e-01,-1.389705329597472339e-03,-2.677125581044377360e-03,-1.625274337400592004e-02,-5.074231478048949612e-03
2.022042927050510946e-03,-2.244825804027444222e-03,3.778658214669460003e-03,5.878308996929265673e-02,-8.472658997264637115e-02,2.580887020448115882e-03,1.016681218382477561e-02,-2.104684543446721026e-02,3.797225468594019049e-03,-2.671122425165433842e-03,3.028441731463089176e-02,-5.003749064450933870e-02,9.847696999439584098e-02,-9.790064739050495513e-02,7.346784397381640741e-02,-2.355601339529905108e-02,4.512225296978335243e-02,-6.376950887004533344e-03,-7.678536139110098135e-03,1.320307536313788249e-03,-2.265336816054878272e-02,4.995015765053299750e-02,-1.215765492015766780e-01,-1.006259465705086273e-04,-1.879115172825129854e-02,-2.896836613536128008e-02,-8.804312289920721013e-03,-1.719184623327735251e-03,3.809453428647957551e-02,-2.949595541509031707e-02,7.827352929550100702e-02,4.417927405012400666e-02,4.361444049071461215e-02,1.385232021547909767e-02,4.637463141940589839e-02,5.807152742297750497e-03,-1.131046027052385120e-02,1.222434962690857260e-02,-8.508732340922940673e-02,2.096622116752740184e-01,6.082054205785574208e-01,1.685581336609690839e-01,-8.416825668134268745e-02,-1.841431523067096898e-02,-1.164784431895095687e-02,-1.305994226932788611e-02,5.129868602669414301e-02,-6.321599745975174656e-02,9.853546072386354382e-02,4.648426340111908722e-02,3.999890868992752452e-02,-6.024040251392673642e-03,4.872629440973030163e-02,-2.791418973929151240e-03,9.914993292275558340e-03,-2.073143023467542007e-02,-1.396416042917174478e-02,5.084966985063771316e-02,-1.059297811296378566e-01,-9.333987259858480406e-03,-1.111716048470363233e-02,-2.744789275255992908e-02,2.190838830199988256e-05,-1.545966905863802726e-02,4.241129754000189794e-02,-6.073028560266671705e-02,1.072569253108132670e-01,-7.915295155378131164e-02,5.439521297757567847e-02,-1.468636248222458113e-02,3.514229761529674700e-02,-5.666648360202425003e-03,7.835663131922264435e-03,-1.668420154226064531e-02,-1.115649672190219960e-03,7.203912311605323304e-02,-5.931454745943377793e-02,-3.665365951614603379e-02,1.665874506245349634e-02,-2.373991214880769723e-02,1.269401929520781389e-03
5.694151602996317535e-03,3.173116946014107459e-03,1.014339843640710975e-02,6.399028128107087099e-02,-7.927316527216496378e-02,1.678564063983780177e-02,5.885107706051113940e-03,-1.232919472655410326e-02,4.347219831028715717e-03,6.812012626465142884e-03,-1.852458408346323998e-02,-1.924703923233669206e-02,4.761242783944751727e-02,-6.585627889210331209e-02,2.410634037904008098e-02,-8.738240630123060917e-03,1.184294965918623529e-02,-4.187922567475250123e-03,-3.839490136724178077e-03,2.430026839927571652e-02,-1.652115582994113582e-02,8.293186781844243127e-02,-1.189451236527258038e-01,3.412851614593654520e-02,-1.646614198610761581e-02,-4.067539446699687013e-03,-4.048500512829247833e-03,1.283997485591524372e-02,-2.176867958794632962e-02,1.556183841047798291e-02,-6.307513910631227377e-03,1.177463837920835477e-01,-4.059792256990015641e-02,4.939664857236911177e-02,-7.413128743561880202e-03,1.161272328927257132e-02,-6.488337648072696473e-03,4.042090345846710564e-02,-9.118891821070862491e-02,2.725329899670406730e-01,5.140497992010985007e-01,2.159975332456205155e-01,-8.429968766253155554e-02,8.647604105579451139e-03,-4.979795650701968404e-03,-1.650912027591397088e-03,-1.148755286777995710e-02,-2.155853864720758822e-02,1.425061351866136611e-02,9.192676027684727746e-02,-4.154501748192277605e-02,2.782066779295638489e-02,-4.804881409178334006e-03,2.396735975868202750e-03,1.766343027960433354e-02,1.066607895135136819e-03,-8.172557057240865258e-03,8.771403511291218924e-02,-1.008882245699143365e-01,2.340270340260463752e-02,-6.927069443562859294e-03,-2.383820267805886878e-03,5.397933197576693445e-03,-1.437951758260721906e-02,-2.739443691969212225e-04,-3.463531697059673425e-02,5.601636361027228367e-02,-6.333345276168696192e-02,1.351325734784220890e-02,-5.042366099253811282e-03,3.003283178496463091e-03,-6.828110332708146706e-03,1.350857145991173937e-02,-1.132384515179123488e-02,8.228378820295562113e-03,8.612029337480975322e-02,-5.255727210398707105e-02,-2.580988028520221633e-02,1.979588883040032249e-02,-1.637680368692003702e-02,6.575465991822786183e-04
