[ 0.02032965 -0.04554673 -0.1137464  -0.02425348 -0.01912255 -0.10649333
  0.02536465  0.22234938  0.04005268 -0.00423493 -0.21071343  0.22741719
  0.94726633  0.12167619 -0.17811335  0.17577587 -0.10357399 -0.34319694
  0.0940713   0.10785204 -0.06126521  0.05389285  0.10650371  0.11529001
 -0.16095894][-2.61129546e-01  4.59214730e-02 -2.29877152e-01 -5.57170429e-02
  8.30714390e-02  2.88032811e-01  3.10078966e-01  3.63373900e-01
  2.98189998e-01 -1.38867662e-01  1.06999958e-01 -1.00840127e-01
  2.48765337e-01 -4.37909128e-01 -1.86411046e-03 -2.18672678e-01
  1.86092526e-01  6.10916030e-01  1.46426844e-01  3.90639235e-02
  4.62132738e-04  5.13037437e-02 -3.77199246e-01  1.01823866e-01
  6.28524333e-02][-0.03068133 -0.05076874 -0.15082936 -0.04421414 -0.07291384  0.08234219
  0.23227727  0.21463028  0.14603577  0.13067244 -0.1289563  -0.04299347
  0.67164117  0.0694949  -0.17837596  0.03956192  0.14439624  0.17730734
  0.12265835  0.02696779 -0.04265898 -0.02706797 -0.14852372 -0.01456421
 -0.02070423][ 0.04886239  0.05143956 -0.00348619  0.09856054 -0.00488819 -0.08465037
 -0.07782771 -0.00097522 -0.08809969 -0.0749997   0.028395    0.2419435
  0.78758965  0.27712091  0.00770108 -0.09079441 -0.06175505  0.035048
 -0.08934228 -0.06976376  0.02765748  0.07192198 -0.03970943  0.10990759
  0.00971824][ 1.00521114e-02  6.30346775e-02 -1.98344698e-02  7.58085834e-02
  2.89030333e-04 -2.36021652e-04 -5.61889683e-02 -4.56272543e-02
 -1.79611862e-02 -1.66025006e-02 -7.74206711e-02  2.00002936e-01
  8.87367974e-01  1.88899454e-01 -8.05950350e-02 -3.71201592e-03
 -3.90826077e-02 -1.74224757e-02 -2.34762214e-02 -3.30837494e-02
 -4.02434383e-03  8.24151646e-02 -5.07917251e-02  7.70028676e-02
  1.04570944e-02][-0.05401389 -0.05531868 -0.19123708 -0.05065074 -0.05593722  0.13809248
  0.19766702  0.18916935  0.25360325  0.09936892 -0.17907912 -0.06111843
  0.71145908 -0.0748824  -0.22684793  0.1554019   0.12612304  0.14588201
  0.24808128  0.11981182 -0.125541    0.02448824 -0.12667923 -0.06180017
 -0.04250084][ 0.02032965 -0.04554673 -0.1137464  -0.02425348 -0.01912255 -0.10649333
  0.02536465  0.22234938  0.04005268 -0.00423493 -0.21071343  0.22741719
  0.94726633  0.12167619 -0.17811335  0.17577587 -0.10357399 -0.34319694
  0.0940713   0.10785204 -0.06126521  0.05389285  0.10650371  0.11529001
 -0.16095894][-2.61129546e-01  4.59214730e-02 -2.29877152e-01 -5.57170429e-02
  8.30714390e-02  2.88032811e-01  3.10078966e-01  3.63373900e-01
  2.98189998e-01 -1.38867662e-01  1.06999958e-01 -1.00840127e-01
  2.48765337e-01 -4.37909128e-01 -1.86411046e-03 -2.18672678e-01
  1.86092526e-01  6.10916030e-01  1.46426844e-01  3.90639235e-02
  4.62132738e-04  5.13037437e-02 -3.77199246e-01  1.01823866e-01
  6.28524333e-02][-0.03068133 -0.05076874 -0.15082936 -0.04421414 -0.07291384  0.08234219
  0.23227727  0.21463028  0.14603577  0.13067244 -0.1289563  -0.04299347
  0.67164117  0.0694949  -0.17837596  0.03956192  0.14439624  0.17730734
  0.12265835  0.02696779 -0.04265898 -0.02706797 -0.14852372 -0.01456421
 -0.02070423][ 0.04886239  0.05143956 -0.00348619  0.09856054 -0.00488819 -0.08465037
 -0.07782771 -0.00097522 -0.08809969 -0.0749997   0.028395    0.2419435
  0.78758965  0.27712091  0.00770108 -0.09079441 -0.06175505  0.035048
 -0.08934228 -0.06976376  0.02765748  0.07192198 -0.03970943  0.10990759
  0.00971824][ 1.00521114e-02  6.30346775e-02 -1.98344698e-02  7.58085834e-02
  2.89030333e-04 -2.36021652e-04 -5.61889683e-02 -4.56272543e-02
 -1.79611862e-02 -1.66025006e-02 -7.74206711e-02  2.00002936e-01
  8.87367974e-01  1.88899454e-01 -8.05950350e-02 -3.71201592e-03
 -3.90826077e-02 -1.74224757e-02 -2.34762214e-02 -3.30837494e-02
 -4.02434383e-03  8.24151646e-02 -5.07917251e-02  7.70028676e-02
  1.04570944e-02][-0.05401389 -0.05531868 -0.19123708 -0.05065074 -0.05593722  0.13809248
  0.19766702  0.18916935  0.25360325  0.09936892 -0.17907912 -0.06111843
  0.71145908 -0.0748824  -0.22684793  0.1554019   0.12612304  0.14588201
  0.24808128  0.11981182 -0.125541    0.02448824 -0.12667923 -0.06180017
 -0.04250084][ 0.02032965 -0.04554673 -0.1137464  -0.02425348 -0.01912255 -0.10649333
  0.02536465  0.22234938  0.04005268 -0.00423493 -0.21071343  0.22741719
  0.94726633  0.12167619 -0.17811335  0.17577587 -0.10357399 -0.34319694
  0.0940713   0.10785204 -0.06126521  0.05389285  0.10650371  0.11529001
 -0.16095894][-2.61129546e-01  4.59214730e-02 -2.29877152e-01 -5.57170429e-02
  8.30714390e-02  2.88032811e-01  3.10078966e-01  3.63373900e-01
  2.98189998e-01 -1.38867662e-01  1.06999958e-01 -1.00840127e-01
  2.48765337e-01 -4.37909128e-01 -1.86411046e-03 -2.18672678e-01
  1.86092526e-01  6.10916030e-01  1.46426844e-01  3.90639235e-02
  4.62132738e-04  5.13037437e-02 -3.77199246e-01  1.01823866e-01
  6.28524333e-02][-0.03068133 -0.05076874 -0.15082936 -0.04421414 -0.07291384  0.08234219
  0.23227727  0.21463028  0.14603577  0.13067244 -0.1289563  -0.04299347
  0.67164117  0.0694949  -0.17837596  0.03956192  0.14439624  0.17730734
  0.12265835  0.02696779 -0.04265898 -0.02706797 -0.14852372 -0.01456421
 -0.02070423][ 0.04886239  0.05143956 -0.00348619  0.09856054 -0.00488819 -0.08465037
 -0.07782771 -0.00097522 -0.08809969 -0.0749997   0.028395    0.2419435
  0.78758965  0.27712091  0.00770108 -0.09079441 -0.06175505  0.035048
 -0.08934228 -0.06976376  0.02765748  0.07192198 -0.03970943  0.10990759
  0.00971824][ 1.00521114e-02  6.30346775e-02 -1.98344698e-02  7.58085834e-02
  2.89030333e-04 -2.36021652e-04 -5.61889683e-02 -4.56272543e-02
 -1.79611862e-02 -1.66025006e-02 -7.74206711e-02  2.00002936e-01
  8.87367974e-01  1.88899454e-01 -8.05950350e-02 -3.71201592e-03
 -3.90826077e-02 -1.74224757e-02 -2.34762214e-02 -3.30837494e-02
 -4.02434383e-03  8.24151646e-02 -5.07917251e-02  7.70028676e-02
  1.04570944e-02][-0.05401389 -0.05531868 -0.19123708 -0.05065074 -0.05593722  0.13809248
  0.19766702  0.18916935  0.25360325  0.09936892 -0.17907912 -0.06111843
  0.71145908 -0.0748824  -0.22684793  0.1554019   0.12612304  0.14588201
  0.24808128  0.11981182 -0.125541    0.02448824 -0.12667923 -0.06180017
 -0.04250084][ 0.02032965 -0.04554673 -0.1137464  -0.02425348 -0.01912255 -0.10649333
  0.02536465  0.22234938  0.04005268 -0.00423493 -0.21071343  0.22741719
  0.94726633  0.12167619 -0.17811335  0.17577587 -0.10357399 -0.34319694
  0.0940713   0.10785204 -0.06126521  0.05389285  0.10650371  0.11529001
 -0.16095894][-2.61129546e-01  4.59214730e-02 -2.29877152e-01 -5.57170429e-02
  8.30714390e-02  2.88032811e-01  3.10078966e-01  3.63373900e-01
  2.98189998e-01 -1.38867662e-01  1.06999958e-01 -1.00840127e-01
  2.48765337e-01 -4.37909128e-01 -1.86411046e-03 -2.18672678e-01
  1.86092526e-01  6.10916030e-01  1.46426844e-01  3.90639235e-02
  4.62132738e-04  5.13037437e-02 -3.77199246e-01  1.01823866e-01
  6.28524333e-02][-0.03068133 -0.05076874 -0.15082936 -0.04421414 -0.07291384  0.08234219
  0.23227727  0.21463028  0.14603577  0.13067244 -0.1289563  -0.04299347
  0.67164117  0.0694949  -0.17837596  0.03956192  0.14439624  0.17730734
  0.12265835  0.02696779 -0.04265898 -0.02706797 -0.14852372 -0.01456421
 -0.02070423][ 0.04886239  0.05143956 -0.00348619  0.09856054 -0.00488819 -0.08465037
 -0.07782771 -0.00097522 -0.08809969 -0.0749997   0.028395    0.2419435
  0.78758965  0.27712091  0.00770108 -0.09079441 -0.06175505  0.035048
 -0.08934228 -0.06976376  0.02765748  0.07192198 -0.03970943  0.10990759
  0.00971824][ 1.00521114e-02  6.30346775e-02 -1.98344698e-02  7.58085834e-02
  2.89030333e-04 -2.36021652e-04 -5.61889683e-02 -4.56272543e-02
 -1.79611862e-02 -1.66025006e-02 -7.74206711e-02  2.00002936e-01
  8.87367974e-01  1.88899454e-01 -8.05950350e-02 -3.71201592e-03
 -3.90826077e-02 -1.74224757e-02 -2.34762214e-02 -3.30837494e-02
 -4.02434383e-03  8.24151646e-02 -5.07917251e-02  7.70028676e-02
  1.04570944e-02][-0.05401389 -0.05531868 -0.19123708 -0.05065074 -0.05593722  0.13809248
  0.19766702  0.18916935  0.25360325  0.09936892 -0.17907912 -0.06111843
  0.71145908 -0.0748824  -0.22684793  0.1554019   0.12612304  0.14588201
  0.24808128  0.11981182 -0.125541    0.02448824 -0.12667923 -0.06180017
 -0.04250084][ 0.02032965 -0.04554673 -0.1137464  -0.02425348 -0.01912255 -0.10649333
  0.02536465  0.22234938  0.04005268 -0.00423493 -0.21071343  0.22741719
  0.94726633  0.12167619 -0.17811335  0.17577587 -0.10357399 -0.34319694
  0.0940713   0.10785204 -0.06126521  0.05389285  0.10650371  0.11529001
 -0.16095894][-2.61129546e-01  4.59214730e-02 -2.29877152e-01 -5.57170429e-02
  8.30714390e-02  2.88032811e-01  3.10078966e-01  3.63373900e-01
  2.98189998e-01 -1.38867662e-01  1.06999958e-01 -1.00840127e-01
  2.48765337e-01 -4.37909128e-01 -1.86411046e-03 -2.18672678e-01
  1.86092526e-01  6.10916030e-01  1.46426844e-01  3.90639235e-02
  4.62132738e-04  5.13037437e-02 -3.77199246e-01  1.01823866e-01
  6.28524333e-02][-0.03068133 -0.05076874 -0.15082936 -0.04421414 -0.07291384  0.08234219
  0.23227727  0.21463028  0.14603577  0.13067244 -0.1289563  -0.04299347
  0.67164117  0.0694949  -0.17837596  0.03956192  0.14439624  0.17730734
  0.12265835  0.02696779 -0.04265898 -0.02706797 -0.14852372 -0.01456421
 -0.02070423][ 0.04886239  0.05143956 -0.00348619  0.09856054 -0.00488819 -0.08465037
 -0.07782771 -0.00097522 -0.08809969 -0.0749997   0.028395    0.2419435
  0.78758965  0.27712091  0.00770108 -0.09079441 -0.06175505  0.035048
 -0.08934228 -0.06976376  0.02765748  0.07192198 -0.03970943  0.10990759
  0.00971824][ 1.00521114e-02  6.30346775e-02 -1.98344698e-02  7.58085834e-02
  2.89030333e-04 -2.36021652e-04 -5.61889683e-02 -4.56272543e-02
 -1.79611862e-02 -1.66025006e-02 -7.74206711e-02  2.00002936e-01
  8.87367974e-01  1.88899454e-01 -8.05950350e-02 -3.71201592e-03
 -3.90826077e-02 -1.74224757e-02 -2.34762214e-02 -3.30837494e-02
 -4.02434383e-03  8.24151646e-02 -5.07917251e-02  7.70028676e-02
  1.04570944e-02][-0.05401389 -0.05531868 -0.19123708 -0.05065074 -0.05593722  0.13809248
  0.19766702  0.18916935  0.25360325  0.09936892 -0.17907912 -0.06111843
  0.71145908 -0.0748824  -0.22684793  0.1554019   0.12612304  0.14588201
  0.24808128  0.11981182 -0.125541    0.02448824 -0.12667923 -0.06180017
 -0.04250084][ 0.02032965 -0.04554673 -0.1137464  -0.02425348 -0.01912255 -0.10649333
  0.02536465  0.22234938  0.04005268 -0.00423493 -0.21071343  0.22741719
  0.94726633  0.12167619 -0.17811335  0.17577587 -0.10357399 -0.34319694
  0.0940713   0.10785204 -0.06126521  0.05389285  0.10650371  0.11529001
 -0.16095894][-2.61129546e-01  4.59214730e-02 -2.29877152e-01 -5.57170429e-02
  8.30714390e-02  2.88032811e-01  3.10078966e-01  3.63373900e-01
  2.98189998e-01 -1.38867662e-01  1.06999958e-01 -1.00840127e-01
  2.48765337e-01 -4.37909128e-01 -1.86411046e-03 -2.18672678e-01
  1.86092526e-01  6.10916030e-01  1.46426844e-01  3.90639235e-02
  4.62132738e-04  5.13037437e-02 -3.77199246e-01  1.01823866e-01
  6.28524333e-02][-0.03068133 -0.05076874 -0.15082936 -0.04421414 -0.07291384  0.08234219
  0.23227727  0.21463028  0.14603577  0.13067244 -0.1289563  -0.04299347
  0.67164117  0.0694949  -0.17837596  0.03956192  0.14439624  0.17730734
  0.12265835  0.02696779 -0.04265898 -0.02706797 -0.14852372 -0.01456421
 -0.02070423][ 0.04886239  0.05143956 -0.00348619  0.09856054 -0.00488819 -0.08465037
 -0.07782771 -0.00097522 -0.08809969 -0.0749997   0.028395    0.2419435
  0.78758965  0.27712091  0.00770108 -0.09079441 -0.06175505  0.035048
 -0.08934228 -0.06976376  0.02765748  0.07192198 -0.03970943  0.10990759
  0.00971824][ 1.00521114e-02  6.30346775e-02 -1.98344698e-02  7.58085834e-02
  2.89030333e-04 -2.36021652e-04 -5.61889683e-02 -4.56272543e-02
 -1.79611862e-02 -1.66025006e-02 -7.74206711e-02  2.00002936e-01
  8.87367974e-01  1.88899454e-01 -8.05950350e-02 -3.71201592e-03
 -3.90826077e-02 -1.74224757e-02 -2.34762214e-02 -3.30837494e-02
 -4.02434383e-03  8.24151646e-02 -5.07917251e-02  7.70028676e-02
  1.04570944e-02][-0.05401389 -0.05531868 -0.19123708 -0.05065074 -0.05593722  0.13809248
  0.19766702  0.18916935  0.25360325  0.09936892 -0.17907912 -0.06111843
  0.71145908 -0.0748824  -0.22684793  0.1554019   0.12612304  0.14588201
  0.24808128  0.11981182 -0.125541    0.02448824 -0.12667923 -0.06180017
 -0.04250084][ 0.02032965 -0.04554673 -0.1137464  -0.02425348 -0.01912255 -0.10649333
  0.02536465  0.22234938  0.04005268 -0.00423493 -0.21071343  0.22741719
  0.94726633  0.12167619 -0.17811335  0.17577587 -0.10357399 -0.34319694
  0.0940713   0.10785204 -0.06126521  0.05389285  0.10650371  0.11529001
 -0.16095894][-2.61129546e-01  4.59214730e-02 -2.29877152e-01 -5.57170429e-02
  8.30714390e-02  2.88032811e-01  3.10078966e-01  3.63373900e-01
  2.98189998e-01 -1.38867662e-01  1.06999958e-01 -1.00840127e-01
  2.48765337e-01 -4.37909128e-01 -1.86411046e-03 -2.18672678e-01
  1.86092526e-01  6.10916030e-01  1.46426844e-01  3.90639235e-02
  4.62132738e-04  5.13037437e-02 -3.77199246e-01  1.01823866e-01
  6.28524333e-02][-0.03068133 -0.05076874 -0.15082936 -0.04421414 -0.07291384  0.08234219
  0.23227727  0.21463028  0.14603577  0.13067244 -0.1289563  -0.04299347
  0.67164117  0.0694949  -0.17837596  0.03956192  0.14439624  0.17730734
  0.12265835  0.02696779 -0.04265898 -0.02706797 -0.14852372 -0.01456421
 -0.02070423][ 0.04886239  0.05143956 -0.00348619  0.09856054 -0.00488819 -0.08465037
 -0.07782771 -0.00097522 -0.08809969 -0.0749997   0.028395    0.2419435
  0.78758965  0.27712091  0.00770108 -0.09079441 -0.06175505  0.035048
 -0.08934228 -0.06976376  0.02765748  0.07192198 -0.03970943  0.10990759
  0.00971824][ 1.00521114e-02  6.30346775e-02 -1.98344698e-02  7.58085834e-02
  2.89030333e-04 -2.36021652e-04 -5.61889683e-02 -4.56272543e-02
 -1.79611862e-02 -1.66025006e-02 -7.74206711e-02  2.00002936e-01
  8.87367974e-01  1.88899454e-01 -8.05950350e-02 -3.71201592e-03
 -3.90826077e-02 -1.74224757e-02 -2.34762214e-02 -3.30837494e-02
 -4.02434383e-03  8.24151646e-02 -5.07917251e-02  7.70028676e-02
  1.04570944e-02][-0.05401389 -0.05531868 -0.19123708 -0.05065074 -0.05593722  0.13809248
  0.19766702  0.18916935  0.25360325  0.09936892 -0.17907912 -0.06111843
  0.71145908 -0.0748824  -0.22684793  0.1554019   0.12612304  0.14588201
  0.24808128  0.11981182 -0.125541    0.02448824 -0.12667923 -0.06180017
 -0.04250084][ 0.02032965 -0.04554673 -0.1137464  -0.02425348 -0.01912255 -0.10649333
  0.02536465  0.22234938  0.04005268 -0.00423493 -0.21071343  0.22741719
  0.94726633  0.12167619 -0.17811335  0.17577587 -0.10357399 -0.34319694
  0.0940713   0.10785204 -0.06126521  0.05389285  0.10650371  0.11529001
 -0.16095894][-2.61129546e-01  4.59214730e-02 -2.29877152e-01 -5.57170429e-02
  8.30714390e-02  2.88032811e-01  3.10078966e-01  3.63373900e-01
  2.98189998e-01 -1.38867662e-01  1.06999958e-01 -1.00840127e-01
  2.48765337e-01 -4.37909128e-01 -1.86411046e-03 -2.18672678e-01
  1.86092526e-01  6.10916030e-01  1.46426844e-01  3.90639235e-02
  4.62132738e-04  5.13037437e-02 -3.77199246e-01  1.01823866e-01
  6.28524333e-02][-0.03068133 -0.05076874 -0.15082936 -0.04421414 -0.07291384  0.08234219
  0.23227727  0.21463028  0.14603577  0.13067244 -0.1289563  -0.04299347
  0.67164117  0.0694949  -0.17837596  0.03956192  0.14439624  0.17730734
  0.12265835  0.02696779 -0.04265898 -0.02706797 -0.14852372 -0.01456421
 -0.02070423][ 0.04886239  0.05143956 -0.00348619  0.09856054 -0.00488819 -0.08465037
 -0.07782771 -0.00097522 -0.08809969 -0.0749997   0.028395    0.2419435
  0.78758965  0.27712091  0.00770108 -0.09079441 -0.06175505  0.035048
 -0.08934228 -0.06976376  0.02765748  0.07192198 -0.03970943  0.10990759
  0.00971824][ 1.00521114e-02  6.30346775e-02 -1.98344698e-02  7.58085834e-02
  2.89030333e-04 -2.36021652e-04 -5.61889683e-02 -4.56272543e-02
 -1.79611862e-02 -1.66025006e-02 -7.74206711e-02  2.00002936e-01
  8.87367974e-01  1.88899454e-01 -8.05950350e-02 -3.71201592e-03
 -3.90826077e-02 -1.74224757e-02 -2.34762214e-02 -3.30837494e-02
 -4.02434383e-03  8.24151646e-02 -5.07917251e-02  7.70028676e-02
  1.04570944e-02][-0.05401389 -0.05531868 -0.19123708 -0.05065074 -0.05593722  0.13809248
  0.19766702  0.18916935  0.25360325  0.09936892 -0.17907912 -0.06111843
  0.71145908 -0.0748824  -0.22684793  0.1554019   0.12612304  0.14588201
  0.24808128  0.11981182 -0.125541    0.02448824 -0.12667923 -0.06180017
 -0.04250084]