-5.423738082957063611e-02,7.164350670076166661e-02,-8.743577013550314636e-02,5.380102776326466801e-02,-5.752942683430005422e-02,6.561519524050357655e-02,-4.157515624979082891e-03,1.018062660215096615e-01,-1.207681003551069193e-02,6.299671626058847562e-02,-1.044125714850802078e-01,1.051123770504344412e-01,7.590255747268408459e-01,8.037896983200190637e-02,-9.575577256747722088e-02,5.974823494513038097e-02,-2.860975476794772043e-03,7.146502207977910304e-02,-1.467550120489094848e-02,6.587251900234197821e-02,-6.106666910170954060e-02,7.367474632496320841e-02,-7.716983777599045746e-02,4.777022154484442118e-02,-4.984462503731787453e-02
-4.950184741983682662e-02,3.192712522742049974e-02,-7.045882509841379371e-02,-7.535723706660319050e-03,-6.607419874946128535e-02,4.187909556933870625e-03,2.334846225607697945e-01,-6.205218363765099138e-02,2.222653357729223456e-01,1.649604231937691970e-02,-8.542602411259898887e-02,-6.077831585183575414e-02,8.072012380355446659e-01,-8.770062610117225488e-02,-8.352457914861387278e-02,1.895354135965528555e-02,2.263465045081166915e-01,-7.093743866924184793e-02,2.156517897169581144e-01,1.611005056959963905e-02,-7.315740813033233536e-02,3.308831020141973084e-02,-6.321563492732244771e-02,-1.430208432047378950e-02,-4.555747348988295475e-02
-2.869482495909152914e-02,-2.920732170157261387e-02,-2.429163105196754935e-02,-1.739424351201604435e-02,-2.115993216580724229e-02,1.160676132473934252e-01,-7.428127729470740404e-02,1.497279024419564952e-01,-6.548698813651700201e-02,1.137199263075982236e-01,-1.004616627948737573e-01,2.670566516728438422e-02,9.182102980267657921e-01,4.487209157412643673e-02,-1.013344616092782813e-01,1.151303456371206291e-01,-1.069335266182241950e-01,1.856957793528895007e-01,-8.645177996046521374e-02,1.016577944711053727e-01,-3.213699464542027484e-02,-4.585782133713351208e-03,-5.055663449839764567e-02,5.655197573050207809e-03,-3.421097119627763972e-02
-7.622812697144666291e-03,8.481249915698413355e-02,-5.700160238067836227e-02,7.511895776244088829e-02,-1.796449926074407399e-02,-3.938515337633797728e-03,-9.588390888866399342e-02,5.126851296017478909e-02,-1.211985393325439586e-01,7.573232088302954412e-03,-7.154821072435757490e-02,3.045810787423272048e-01,7.116669318596894334e-01,3.204213173050723396e-01,-8.473622808288859554e-02,-9.191512910379777412e-03,-1.126288286662740085e-01,6.531935324301683943e-02,-1.296798781947010037e-01,-7.892613284469821543e-04,-1.278759263154183312e-02,9.674749892385020589e-02,-6.070376120347378834e-02,7.932589610842431804e-02,-1.635228880983429986e-02
-3.328409318329045297e-02,1.685269587574283190e-01,-2.109531645543179235e-01,9.935487922802664629e-02,-3.255726450949593398e-02,1.459351190868532835e-02,1.023815904906863125e-02,-3.175526234303641809e-02,-4.506162948436247262e-02,1.275568326716716716e-02,-6.701596099530199302e-02,2.096269027414903730e-01,8.179212417700445492e-01,1.595304985306880141e-01,-5.405937608375394055e-02,1.525147141711316948e-02,1.377124980451920055e-02,-3.304921177711037453e-03,-4.578942015012318900e-02,1.706915437727372573e-02,-4.776364505985896541e-02,1.855536881173786845e-01,-1.961544466199999781e-01,7.494282576960900610e-02,-2.687759443590963943e-02
-6.802189927147643533e-03,6.011457354481769544e-02,-1.842177872071696920e-01,-6.031578315764382636e-03,-4.309477281515101260e-02,1.252021821339724117e-01,-6.175944538069955830e-03,2.296950302239972597e-01,-6.361560753472425556e-02,1.116155193545885216e-01,-1.025448999373669151e-01,8.859635111391370166e-02,6.166486133670427972e-01,5.064907887733054170e-02,-1.071140115041832458e-01,1.280912931515602593e-01,1.233098314167985210e-04,2.402036591118062447e-01,-7.063281156630832336e-02,1.193146156312648587e-01,-2.910482797829474361e-02,7.652940498723198592e-02,-1.823053414551715490e-01,-1.105274296818652309e-02,-3.449545058533364655e-02
-1.971412615687126446e-02,8.279065066075777524e-02,-1.682901259325438326e-01,1.345298620211391599e-02,-3.189357933378908494e-02,-2.089067770907784144e-02,1.810964752295877445e-01,-4.298508763459901738e-02,1.477439599464258624e-01,1.122524712624941440e-02,-8.242981940024943222e-02,1.773938750907121942e-01,5.930578155590502387e-01,1.133021314018346770e-01,-8.717041114685877834e-02,-5.315747139786039521e-02,2.071649652429092547e-01,-4.516911700927662976e-02,1.448018996712296391e-01,-7.438811479106324093e-03,-2.337000290855763274e-02,8.813975030290316370e-02,-1.292429495348731971e-01,-3.391092002535371630e-02,-1.045925945250527830e-02
-7.342854194138725282e-03,1.190992871339495995e-01,-1.593918946204989640e-01,3.816098733072544741e-02,-2.345973071413160263e-02,1.929774240970726779e-02,8.693648580101152878e-03,9.172735104682258611e-02,-2.262418121267483623e-02,4.245189633570542465e-02,-7.746172727787489776e-02,2.904754205464313288e-01,4.999697869680454487e-01,2.064109846271284521e-01,-8.064537468087031036e-02,-2.252860241474163513e-02,3.705927199526028171e-02,5.950239658260703113e-02,-2.044761621813873803e-02,2.086422235848671425e-02,-6.436759724630137375e-03,1.249407714462474894e-01,-1.215150986184467957e-01,1.877577428476460975e-03,-1.081195821036792792e-02
